<?xml version="1.0"?>
<opencv_storage>
<cascade>
  <stageType>BOOST</stageType>
  <featureType>HAAR</featureType>
  <height>24</height>
  <width>24</width>
  <stageParams>
    <boostType>GAB</boostType>
    <minHitRate>9.9500000476837158e-01</minHitRate>
    <maxFalseAlarm>5.0000000000000000e-01</maxFalseAlarm>
    <weightTrimRate>9.4999999999999996e-01</weightTrimRate>
    <maxDepth>1</maxDepth>
    <maxWeakCount>100</maxWeakCount></stageParams>
  <featureParams>
    <maxCatCount>0</maxCatCount>
    <featSize>1</featSize>
    <mode>BASIC</mode></featureParams>
  <stageNum>19</stageNum>
  <stages>
    <!-- stage 0 -->
    <_>
      <maxWeakCount>3</maxWeakCount>
      <stageThreshold>-1.3020102977752686e+00</stageThreshold>
      <weakClassifiers>
        <_>
          <internalNodes>
            0 -1 66 -1.4420257881283760e-02</internalNodes>
          <leafValues>
            5.2727270126342773e-01 -9.2007994651794434e-01</leafValues></_>
        <_>
          <internalNodes>
            0 -1 89 -4.4282004237174988e-02</internalNodes>
          <leafValues>
            6.5757614374160767e-01 -7.5456511974334717e-01</leafValues></_>
        <_>
          <internalNodes>
            0 -1 73 1.1645104968920350e-03</internalNodes>
          <leafValues>
            3.7263467907905579e-01 -9.6531057357788086e-01</leafValues></_></weakClassifiers></_>
    <!-- stage 1 -->
    <_>
      <maxWeakCount>5</maxWeakCount>
      <stageThreshold>-1.8608398437500000e+00</stageThreshold>
      <weakClassifiers>
        <_>
          <internalNodes>
            0 -1 82 -3.9429508149623871e-02</internalNodes>
          <leafValues>
            6.2637364864349365e-01 -8.2883721590042114e-01</leafValues></_>
        <_>
          <internalNodes>
            0 -1 25 -1.9267819821834564e-02</internalNodes>
          <leafValues>
            4.1887113451957703e-01 -7.0530241727828979e-01</leafValues></_>
        <_>
          <internalNodes>
            0 -1 38 -3.6840098910033703e-03</internalNodes>
          <leafValues>
            6.7929708957672119e-01 -4.5866137742996216e-01</leafValues></_>
        <_>
          <internalNodes>
            0 -1 60 1.3330432120710611e-03</internalNodes>
          <leafValues>
            -6.3161480426788330e-01 5.3828907012939453e-01</leafValues></_>
        <_>
          <internalNodes>
            0 -1 99 -2.8034863062202930e-03</internalNodes>
          <leafValues>
            7.7306848764419556e-01 -3.6059761047363281e-01</leafValues></_></weakClassifiers></_>
    <!-- stage 2 -->
    <_>
      <maxWeakCount>3</maxWeakCount>
      <stageThreshold>-1.5155837535858154e+00</stageThreshold>
      <weakClassifiers>
        <_>
          <internalNodes>
            0 -1 74 -3.2837443053722382e-02</internalNodes>
          <leafValues>
            4.5762711763381958e-01 -8.4732824563980103e-01</leafValues></_>
        <_>
          <internalNodes>
            0 -1 100 -2.7504506707191467e-01</internalNodes>
          <leafValues>
            -9.3895387649536133e-01 1.5671549737453461e-01</leafValues></_>
        <_>
          <internalNodes>
            0 -1 33 8.9500885223969817e-04</internalNodes>
          <leafValues>
            -8.2497102022171021e-01 2.9824545979499817e-01</leafValues></_></weakClassifiers></_>
    <!-- stage 3 -->
    <_>
      <maxWeakCount>6</maxWeakCount>
      <stageThreshold>-1.4894572496414185e+00</stageThreshold>
      <weakClassifiers>
        <_>
          <internalNodes>
            0 -1 122 -3.1476924195885658e-03</internalNodes>
          <leafValues>
            -7.9819822311401367e-01 9.2857140302658081e-01</leafValues></_>
        <_>
          <internalNodes>
            0 -1 54 -6.3342079520225525e-03</internalNodes>
          <leafValues>
            7.2646510601043701e-01 -4.8253726959228516e-01</leafValues></_>
        <_>
          <internalNodes>
            0 -1 53 8.1958584487438202e-03</internalNodes>
          <leafValues>
            -6.2942224740982056e-01 4.3771877884864807e-01</leafValues></_>
        <_>
          <internalNodes>
            0 -1 83 -1.7047584056854248e-02</internalNodes>
          <leafValues>
            4.4868290424346924e-01 -5.8213007450103760e-01</leafValues></_>
        <_>
          <internalNodes>
            0 -1 67 6.5868988167494535e-04</internalNodes>
          <leafValues>
            2.7323311567306519e-01 -9.1817194223403931e-01</leafValues></_>
        <_>
          <internalNodes>
            0 -1 5 6.2460370361804962e-02</internalNodes>
          <leafValues>
            -3.0121552944183350e-01 8.0674982070922852e-01</leafValues></_></weakClassifiers></_>
    <!-- stage 4 -->
    <_>
      <maxWeakCount>7</maxWeakCount>
      <stageThreshold>-1.4953581094741821e+00</stageThreshold>
      <weakClassifiers>
        <_>
          <internalNodes>
            0 -1 35 -6.9126218557357788e-02</internalNodes>
          <leafValues>
            5.3191488981246948e-01 -8.2462686300277710e-01</leafValues></_>
        <_>
          <internalNodes>
            0 -1 39 2.6044610422104597e-03</internalNodes>
          <leafValues>
            -5.6368899345397949e-01 3.7591841816902161e-01</leafValues></_>
        <_>
          <internalNodes>
            0 -1 10 -4.1400946676731110e-02</internalNodes>
          <leafValues>
            -1. 1.6400204598903656e-01</leafValues></_>
        <_>
          <internalNodes>
            0 -1 77 -5.4333899170160294e-03</internalNodes>
          <leafValues>
            5.3397172689437866e-01 -4.6082919836044312e-01</leafValues></_>
        <_>
          <internalNodes>
            0 -1 46 2.1349659073166549e-04</internalNodes>
          <leafValues>
            -7.4026751518249512e-01 2.6495322585105896e-01</leafValues></_>
        <_>
          <internalNodes>
            0 -1 86 2.4445508606731892e-03</internalNodes>
          <leafValues>
            -3.3261299133300781e-01 6.4983302354812622e-01</leafValues></_>
        <_>
          <internalNodes>
            0 -1 47 2.9026060365140438e-03</internalNodes>
          <leafValues>
            2.6786452531814575e-01 -9.0835464000701904e-01</leafValues></_></weakClassifiers></_>
    <!-- stage 5 -->
    <_>
      <maxWeakCount>5</maxWeakCount>
      <stageThreshold>-1.9768589735031128e+00</stageThreshold>
      <weakClassifiers>
        <_>
          <internalNodes>
            0 -1 14 1.6496093943715096e-02</internalNodes>
          <leafValues>
            -8.3380019664764404e-01 6.2105262279510498e-01</leafValues></_>
        <_>
          <internalNodes>
            0 -1 13 -2.5457304436713457e-03</internalNodes>
          <leafValues>
            6.8573576211929321e-01 -5.6316190958023071e-01</leafValues></_>
        <_>
          <internalNodes>
            0 -1 26 -1.2284917756915092e-02</internalNodes>
          <leafValues>
            3.7842163443565369e-01 -7.2417080402374268e-01</leafValues></_>
        <_>
          <internalNodes>
            0 -1 62 5.5839791893959045e-03</internalNodes>
          <leafValues>
            -5.0396716594696045e-01 4.7391283512115479e-01</leafValues></_>
        <_>
          <internalNodes>
            0 -1 37 1.7075742362067103e-03</internalNodes>
          <leafValues>
            -4.5435130596160889e-01 5.2364307641983032e-01</leafValues></_></weakClassifiers></_>
    <!-- stage 6 -->
    <_>
      <maxWeakCount>6</maxWeakCount>
      <stageThreshold>-1.6828529834747314e+00</stageThreshold>
      <weakClassifiers>
        <_>
          <internalNodes>
            0 -1 94 -3.3085271716117859e-02</internalNodes>
          <leafValues>
            6.6265058517456055e-01 -8.2086795568466187e-01</leafValues></_>
        <_>
          <internalNodes>
            0 -1 93 -4.9833799712359905e-03</internalNodes>
          <leafValues>
            4.6682152152061462e-01 -5.5511415004730225e-01</leafValues></_>
        <_>
          <internalNodes>
            0 -1 81 -1.9759016577154398e-03</internalNodes>
          <leafValues>
            6.9637274742126465e-01 -3.1963425874710083e-01</leafValues></_>
        <_>
          <internalNodes>
            0 -1 56 1.9851550459861755e-03</internalNodes>
          <leafValues>
            -3.1595143675804138e-01 5.8001285791397095e-01</leafValues></_>
        <_>
          <internalNodes>
            0 -1 23 1.6694510355591774e-02</internalNodes>
          <leafValues>
            -2.6344618201255798e-01 6.5088164806365967e-01</leafValues></_>
        <_>
          <internalNodes>
            0 -1 15 1.6669735778123140e-03</internalNodes>
          <leafValues>
            -3.2216680049896240e-01 6.1145818233489990e-01</leafValues></_></weakClassifiers></_>
    <!-- stage 7 -->
    <_>
      <maxWeakCount>5</maxWeakCount>
      <stageThreshold>-1.3479400873184204e+00</stageThreshold>
      <weakClassifiers>
        <_>
          <internalNodes>
            0 -1 115 -1.8419534899294376e-03</internalNodes>
          <leafValues>
            -8.0692166090011597e-01 7.6470589637756348e-01</leafValues></_>
        <_>
          <internalNodes>
            0 -1 55 7.3094977997243404e-03</internalNodes>
          <leafValues>
            -4.8783141374588013e-01 7.4475806951522827e-01</leafValues></_>
        <_>
          <internalNodes>
            0 -1 49 -2.0769590046256781e-03</internalNodes>
          <leafValues>
            -5.8671140670776367e-01 3.3400365710258484e-01</leafValues></_>
        <_>
          <internalNodes>
            0 -1 1 1.1379372328519821e-01</internalNodes>
          <leafValues>
            1.9218894839286804e-01 -9.0357434749603271e-01</leafValues></_>
        <_>
          <internalNodes>
            0 -1 20 1.5772180631756783e-03</internalNodes>
          <leafValues>
            -3.6031562089920044e-01 5.1638376712799072e-01</leafValues></_></weakClassifiers></_>
    <!-- stage 8 -->
    <_>
      <maxWeakCount>8</maxWeakCount>
      <stageThreshold>-1.6613774299621582e+00</stageThreshold>
      <weakClassifiers>
        <_>
          <internalNodes>
            0 -1 123 2.3964201682247221e-04</internalNodes>
          <leafValues>
            -7.8796046972274780e-01 8.1132078170776367e-01</leafValues></_>
        <_>
          <internalNodes>
            0 -1 120 -2.0878566429018974e-03</internalNodes>
          <leafValues>
            5.3281331062316895e-01 -5.3159445524215698e-01</leafValues></_>
        <_>
          <internalNodes>
            0 -1 58 2.8662627300946042e-05</internalNodes>
          <leafValues>
            -6.9882273674011230e-01 3.2533439993858337e-01</leafValues></_>
        <_>
          <internalNodes>
            0 -1 108 9.9786277860403061e-04</internalNodes>
          <leafValues>
            -2.8536039590835571e-01 7.3400515317916870e-01</leafValues></_>
        <_>
          <internalNodes>
            0 -1 109 3.5825246013700962e-03</internalNodes>
          <leafValues>
            -2.2551813721656799e-01 7.1441692113876343e-01</leafValues></_>
        <_>
          <internalNodes>
            0 -1 57 -3.7915000575594604e-04</internalNodes>
          <leafValues>
            5.2921479940414429e-01 -3.3509328961372375e-01</leafValues></_>
        <_>
          <internalNodes>
            0 -1 65 -2.3950510658323765e-03</internalNodes>
          <leafValues>
            -8.2419496774673462e-01 3.0118250846862793e-01</leafValues></_>
        <_>
          <internalNodes>
            0 -1 72 -5.4967837058939040e-05</internalNodes>
          <leafValues>
            2.5631967186927795e-01 -6.9749164581298828e-01</leafValues></_></weakClassifiers></_>
    <!-- stage 9 -->
    <_>
      <maxWeakCount>7</maxWeakCount>
      <stageThreshold>-1.7388169765472412e+00</stageThreshold>
      <weakClassifiers>
        <_>
          <internalNodes>
            0 -1 95 -2.4294622242450714e-02</internalNodes>
          <leafValues>
            5.3246754407882690e-01 -8.0348944664001465e-01</leafValues></_>
        <_>
          <internalNodes>
            0 -1 52 -2.8051710128784180e-01</internalNodes>
          <leafValues>
            2.7299329638481140e-01 -5.3616976737976074e-01</leafValues></_>
        <_>
          <internalNodes>
            0 -1 24 -3.2148538157343864e-03</internalNodes>
          <leafValues>
            6.9333845376968384e-01 -3.0467846989631653e-01</leafValues></_>
        <_>
          <internalNodes>
            0 -1 121 1.8127968360204250e-04</internalNodes>
          <leafValues>
            -3.3214178681373596e-01 4.5587036013603210e-01</leafValues></_>
        <_>
          <internalNodes>
            0 -1 45 2.1082781255245209e-02</internalNodes>
          <leafValues>
            1.9175361096858978e-01 -8.7643522024154663e-01</leafValues></_>
        <_>
          <internalNodes>
            0 -1 17 -3.0490388162434101e-03</internalNodes>
          <leafValues>
            7.0655059814453125e-01 -2.4701085686683655e-01</leafValues></_>
        <_>
          <internalNodes>
            0 -1 22 -7.4497684836387634e-03</internalNodes>
          <leafValues>
            6.3077020645141602e-01 -3.8046500086784363e-01</leafValues></_></weakClassifiers></_>
    <!-- stage 10 -->
    <_>
      <maxWeakCount>8</maxWeakCount>
      <stageThreshold>-1.7344369888305664e+00</stageThreshold>
      <weakClassifiers>
        <_>
          <internalNodes>
            0 -1 98 -2.9867906123399734e-02</internalNodes>
          <leafValues>
            5.4929578304290771e-01 -7.9726028442382813e-01</leafValues></_>
        <_>
          <internalNodes>
            0 -1 118 -1.5058390796184540e-02</internalNodes>
          <leafValues>
            2.3807784914970398e-01 -5.1081079244613647e-01</leafValues></_>
        <_>
          <internalNodes>
            0 -1 29 1.2382007203996181e-02</internalNodes>
          <leafValues>
            1.5812997519969940e-01 -8.9066857099533081e-01</leafValues></_>
        <_>
          <internalNodes>
            0 -1 116 2.7909418568015099e-03</internalNodes>
          <leafValues>
            -2.8072714805603027e-01 6.1485296487808228e-01</leafValues></_>
        <_>
          <internalNodes>
            0 -1 2 1.0518914088606834e-02</internalNodes>
          <leafValues>
            -2.1342474222183228e-01 6.7994093894958496e-01</leafValues></_>
        <_>
          <internalNodes>
            0 -1 48 -2.4140154942870140e-02</internalNodes>
          <leafValues>
            -1. 1.7986838519573212e-01</leafValues></_>
        <_>
          <internalNodes>
            0 -1 87 -9.6881121862679720e-04</internalNodes>
          <leafValues>
            4.2570325732231140e-01 -4.1944229602813721e-01</leafValues></_>
        <_>
          <internalNodes>
            0 -1 0 -1.4096268569119275e-04</internalNodes>
          <leafValues>
            -7.4413579702377319e-01 2.3215401172637939e-01</leafValues></_></weakClassifiers></_>
    <!-- stage 11 -->
    <_>
      <maxWeakCount>8</maxWeakCount>
      <stageThreshold>-1.6495572328567505e+00</stageThreshold>
      <weakClassifiers>
        <_>
          <internalNodes>
            0 -1 107 1.0759911965578794e-03</internalNodes>
          <leafValues>
            -7.8035712242126465e-01 8.6956518888473511e-01</leafValues></_>
        <_>
          <internalNodes>
            0 -1 63 7.0117972791194916e-04</internalNodes>
          <leafValues>
            -6.1563879251480103e-01 1.4646299183368683e-01</leafValues></_>
        <_>
          <internalNodes>
            0 -1 0 5.0625536823645234e-04</internalNodes>
          <leafValues>
            2.0990367233753204e-01 -8.2938867807388306e-01</leafValues></_>
        <_>
          <internalNodes>
            0 -1 43 -4.7559579834342003e-03</internalNodes>
          <leafValues>
            7.1701312065124512e-01 -2.4766923487186432e-01</leafValues></_>
        <_>
          <internalNodes>
            0 -1 16 -2.3701223544776440e-03</internalNodes>
          <leafValues>
            -7.9504489898681641e-01 2.3480799794197083e-01</leafValues></_>
        <_>
          <internalNodes>
            0 -1 40 -5.1539891865104437e-04</internalNodes>
          <leafValues>
            5.0069564580917358e-01 -3.5354399681091309e-01</leafValues></_>
        <_>
          <internalNodes>
            0 -1 44 5.2700117230415344e-03</internalNodes>
          <leafValues>
            -2.4889253079891205e-01 5.9500294923782349e-01</leafValues></_>
        <_>
          <internalNodes>
            0 -1 41 -1.7089236527681351e-02</internalNodes>
          <leafValues>
            -1. 1.5183274447917938e-01</leafValues></_></weakClassifiers></_>
    <!-- stage 12 -->
    <_>
      <maxWeakCount>6</maxWeakCount>
      <stageThreshold>-1.4767794609069824e+00</stageThreshold>
      <weakClassifiers>
        <_>
          <internalNodes>
            0 -1 105 -6.8481545895338058e-03</internalNodes>
          <leafValues>
            -7.9927009344100952e-01 6.0000002384185791e-01</leafValues></_>
        <_>
          <internalNodes>
            0 -1 78 5.9634777717292309e-03</internalNodes>
          <leafValues>
            -4.5656552910804749e-01 6.5726798772811890e-01</leafValues></_>
        <_>
          <internalNodes>
            0 -1 61 3.4515550360083580e-03</internalNodes>
          <leafValues>
            -5.7211261987686157e-01 3.9566624164581299e-01</leafValues></_>
        <_>
          <internalNodes>
            0 -1 11 -5.5299299955368042e-01</internalNodes>
          <leafValues>
            -1. 1.6440446674823761e-01</leafValues></_>
        <_>
          <internalNodes>
            0 -1 69 8.2801317330449820e-04</internalNodes>
          <leafValues>
            -3.0754324793815613e-01 4.9598768353462219e-01</leafValues></_>
        <_>
          <internalNodes>
            0 -1 96 -1.4293879270553589e-02</internalNodes>
          <leafValues>
            5.1524567604064941e-01 -3.0922338366508484e-01</leafValues></_></weakClassifiers></_>
    <!-- stage 13 -->
    <_>
      <maxWeakCount>9</maxWeakCount>
      <stageThreshold>-1.4239549636840820e+00</stageThreshold>
      <weakClassifiers>
        <_>
          <internalNodes>
            0 -1 113 3.3249371335841715e-04</internalNodes>
          <leafValues>
            -7.8233718872070313e-01 9.5555555820465088e-01</leafValues></_>
        <_>
          <internalNodes>
            0 -1 111 -2.5197230279445648e-02</internalNodes>
          <leafValues>
            5.7893818616867065e-01 -4.1734281182289124e-01</leafValues></_>
        <_>
          <internalNodes>
            0 -1 30 2.5318306870758533e-03</internalNodes>
          <leafValues>
            1.9083221256732941e-01 -9.3440985679626465e-01</leafValues></_>
        <_>
          <internalNodes>
            0 -1 59 2.8468057280406356e-04</internalNodes>
          <leafValues>
            -3.0621570348739624e-01 4.9366158246994019e-01</leafValues></_>
        <_>
          <internalNodes>
            0 -1 92 9.0005015954375267e-04</internalNodes>
          <leafValues>
            1.9975902140140533e-01 -8.5166931152343750e-01</leafValues></_>
        <_>
          <internalNodes>
            0 -1 106 1.1479939566925168e-03</internalNodes>
          <leafValues>
            1.9347983598709106e-01 -6.5348517894744873e-01</leafValues></_>
        <_>
          <internalNodes>
            0 -1 9 1.4438325539231300e-02</internalNodes>
          <leafValues>
            -2.3521682620048523e-01 6.7698335647583008e-01</leafValues></_>
        <_>
          <internalNodes>
            0 -1 71 -1.5478644520044327e-02</internalNodes>
          <leafValues>
            -8.0715894699096680e-01 2.1981233358383179e-01</leafValues></_>
        <_>
          <internalNodes>
            0 -1 28 -3.3761130180209875e-03</internalNodes>
          <leafValues>
            6.4913338422775269e-01 -2.5963181257247925e-01</leafValues></_></weakClassifiers></_>
    <!-- stage 14 -->
    <_>
      <maxWeakCount>9</maxWeakCount>
      <stageThreshold>-1.6033520698547363e+00</stageThreshold>
      <weakClassifiers>
        <_>
          <internalNodes>
            0 -1 80 -1.2847947888076305e-02</internalNodes>
          <leafValues>
            2.7083334326744080e-01 -8.0373829603195190e-01</leafValues></_>
        <_>
          <internalNodes>
            0 -1 114 -8.0306529998779297e-03</internalNodes>
          <leafValues>
            5.2056014537811279e-01 -4.0465694665908813e-01</leafValues></_>
        <_>
          <internalNodes>
            0 -1 91 1.7677128780633211e-03</internalNodes>
          <leafValues>
            1.6754421591758728e-01 -8.1514722108840942e-01</leafValues></_>
        <_>
          <internalNodes>
            0 -1 88 -3.8595142541453242e-04</internalNodes>
          <leafValues>
            4.3455582857131958e-01 -3.1602764129638672e-01</leafValues></_>
        <_>
          <internalNodes>
            0 -1 64 3.5813983995467424e-03</internalNodes>
          <leafValues>
            1.6749790310859680e-01 -1.</leafValues></_>
        <_>
          <internalNodes>
            0 -1 85 1.7775034066289663e-03</internalNodes>
          <leafValues>
            -3.3587068319320679e-01 4.3141674995422363e-01</leafValues></_>
        <_>
          <internalNodes>
            0 -1 50 4.6876068226993084e-03</internalNodes>
          <leafValues>
            -3.4945169091224670e-01 4.3849164247512817e-01</leafValues></_>
        <_>
          <internalNodes>
            0 -1 34 2.2268607281148434e-03</internalNodes>
          <leafValues>
            1.4490398764610291e-01 -8.6739796400070190e-01</leafValues></_>
        <_>
          <internalNodes>
            0 -1 27 -2.0419407635927200e-02</internalNodes>
          <leafValues>
            -9.5945733785629272e-01 1.2644717097282410e-01</leafValues></_></weakClassifiers></_>
    <!-- stage 15 -->
    <_>
      <maxWeakCount>10</maxWeakCount>
      <stageThreshold>-1.7127679586410522e+00</stageThreshold>
      <weakClassifiers>
        <_>
          <internalNodes>
            0 -1 79 -1.8806667998433113e-02</internalNodes>
          <leafValues>
            3.2584270834922791e-01 -8.0129992961883545e-01</leafValues></_>
        <_>
          <internalNodes>
            0 -1 4 -3.9836212992668152e-02</internalNodes>
          <leafValues>
            7.7198797464370728e-01 -3.8507762551307678e-01</leafValues></_>
        <_>
          <internalNodes>
            0 -1 8 -4.6282242983579636e-02</internalNodes>
          <leafValues>
            -2.6351916790008545e-01 5.5617159605026245e-01</leafValues></_>
        <_>
          <internalNodes>
            0 -1 84 -4.7677699476480484e-03</internalNodes>
          <leafValues>
            5.1373827457427979e-01 -2.5318253040313721e-01</leafValues></_>
        <_>
          <internalNodes>
            0 -1 19 3.4645257983356714e-04</internalNodes>
          <leafValues>
            -2.8786566853523254e-01 4.4301286339759827e-01</leafValues></_>
        <_>
          <internalNodes>
            0 -1 18 -2.1355403587222099e-03</internalNodes>
          <leafValues>
            7.2793763875961304e-01 -2.3528952896595001e-01</leafValues></_>
        <_>
          <internalNodes>
            0 -1 32 1.7849721014499664e-02</internalNodes>
          <leafValues>
            1.7356462776660919e-01 -8.1282800436019897e-01</leafValues></_>
        <_>
          <internalNodes>
            0 -1 76 -1.2015203014016151e-02</internalNodes>
          <leafValues>
            1.9093219935894012e-01 -6.7070525884628296e-01</leafValues></_>
        <_>
          <internalNodes>
            0 -1 104 1.7395386472344398e-02</internalNodes>
          <leafValues>
            -2.9894861578941345e-01 5.3209728002548218e-01</leafValues></_>
        <_>
          <internalNodes>
            0 -1 102 8.2875299267470837e-04</internalNodes>
          <leafValues>
            -2.7646347880363464e-01 4.4791832566261292e-01</leafValues></_></weakClassifiers></_>
    <!-- stage 16 -->
    <_>
      <maxWeakCount>6</maxWeakCount>
      <stageThreshold>-1.3215712308883667e+00</stageThreshold>
      <weakClassifiers>
        <_>
          <internalNodes>
            0 -1 112 2.3593879304826260e-03</internalNodes>
          <leafValues>
            -7.7560108900070190e-01 8.6046510934829712e-01</leafValues></_>
        <_>
          <internalNodes>
            0 -1 97 4.4611878693103790e-03</internalNodes>
          <leafValues>
            -4.6595755219459534e-01 4.2727422714233398e-01</leafValues></_>
        <_>
          <internalNodes>
            0 -1 51 -4.5443424023687840e-03</internalNodes>
          <leafValues>
            -5.7004028558731079e-01 2.3312894999980927e-01</leafValues></_>
        <_>
          <internalNodes>
            0 -1 75 -5.0722091691568494e-04</internalNodes>
          <leafValues>
            2.0465677976608276e-01 -6.4267051219940186e-01</leafValues></_>
        <_>
          <internalNodes>
            0 -1 119 6.2937131151556969e-03</internalNodes>
          <leafValues>
            -2.5640434026718140e-01 6.1272907257080078e-01</leafValues></_>
        <_>
          <internalNodes>
            0 -1 90 -2.8377676382660866e-02</internalNodes>
          <leafValues>
            5.4177528619766235e-01 -2.5896796584129333e-01</leafValues></_></weakClassifiers></_>
    <!-- stage 17 -->
    <_>
      <maxWeakCount>8</maxWeakCount>
      <stageThreshold>-1.3871507644653320e+00</stageThreshold>
      <weakClassifiers>
        <_>
          <internalNodes>
            0 -1 117 1.9126577535644174e-04</internalNodes>
          <leafValues>
            -7.7837353944778442e-01 7.8723406791687012e-01</leafValues></_>
        <_>
          <internalNodes>
            0 -1 6 -6.7639455199241638e-02</internalNodes>
          <leafValues>
            8.8637512922286987e-01 -4.1001567244529724e-01</leafValues></_>
        <_>
          <internalNodes>
            0 -1 36 1.4253132976591587e-02</internalNodes>
          <leafValues>
            -2.3047316074371338e-01 6.8574994802474976e-01</leafValues></_>
        <_>
          <internalNodes>
            0 -1 70 1.6196207143366337e-03</internalNodes>
          <leafValues>
            -2.4711120128631592e-01 5.8498716354370117e-01</leafValues></_>
        <_>
          <internalNodes>
            0 -1 38 -3.9745131507515907e-03</internalNodes>
          <leafValues>
            4.6930769085884094e-01 -2.6818507909774780e-01</leafValues></_>
        <_>
          <internalNodes>
            0 -1 42 -8.5283778607845306e-03</internalNodes>
          <leafValues>
            4.0138566493988037e-01 -3.6333176493644714e-01</leafValues></_>
        <_>
          <internalNodes>
            0 -1 7 4.3905228376388550e-02</internalNodes>
          <leafValues>
            -3.7391814589500427e-01 4.0767750144004822e-01</leafValues></_>
        <_>
          <internalNodes>
            0 -1 101 1.1516465805470943e-02</internalNodes>
          <leafValues>
            -2.1795235574245453e-01 6.9689488410949707e-01</leafValues></_></weakClassifiers></_>
    <!-- stage 18 -->
    <_>
      <maxWeakCount>7</maxWeakCount>
      <stageThreshold>-1.2349586486816406e+00</stageThreshold>
      <weakClassifiers>
        <_>
          <internalNodes>
            0 -1 103 -5.7849697768688202e-03</internalNodes>
          <leafValues>
            -7.8178536891937256e-01 5.7894736528396606e-01</leafValues></_>
        <_>
          <internalNodes>
            0 -1 3 -1.6560547053813934e-02</internalNodes>
          <leafValues>
            6.0458606481552124e-01 -3.7764024734497070e-01</leafValues></_>
        <_>
          <internalNodes>
            0 -1 110 5.8457362465560436e-03</internalNodes>
          <leafValues>
            -2.8997200727462769e-01 5.1772052049636841e-01</leafValues></_>
        <_>
          <internalNodes>
            0 -1 12 6.2053943984210491e-03</internalNodes>
          <leafValues>
            -2.2811822593212128e-01 6.6385912895202637e-01</leafValues></_>
        <_>
          <internalNodes>
            0 -1 21 1.1025681160390377e-02</internalNodes>
          <leafValues>
            1.8202927708625793e-01 -8.4253758192062378e-01</leafValues></_>
        <_>
          <internalNodes>
            0 -1 68 -2.7867233753204346e-01</internalNodes>
          <leafValues>
            4.7792479395866394e-01 -2.7146279811859131e-01</leafValues></_>
        <_>
          <internalNodes>
            0 -1 31 -2.3078002035617828e-02</internalNodes>
          <leafValues>
            7.7392816543579102e-01 -2.1739678084850311e-01</leafValues></_></weakClassifiers></_></stages>
  <features>
    <_>
      <rects>
        <_>
          0 1 4 2 -1.</_>
        <_>
          0 1 2 1 2.</_>
        <_>
          2 2 2 1 2.</_></rects>
      <tilted>0</tilted></_>
    <_>
      <rects>
        <_>
          0 6 18 14 -1.</_>
        <_>
          0 13 18 7 2.</_></rects>
      <tilted>0</tilted></_>
    <_>
      <rects>
        <_>
          0 8 4 3 -1.</_>
        <_>
          2 8 2 3 2.</_></rects>
      <tilted>0</tilted></_>
    <_>
      <rects>
        <_>
          0 11 8 4 -1.</_>
        <_>
          4 11 4 4 2.</_></rects>
      <tilted>0</tilted></_>
    <_>
      <rects>
        <_>
          0 11 10 6 -1.</_>
        <_>
          5 11 5 6 2.</_></rects>
      <tilted>0</tilted></_>
    <_>
      <rects>
        <_>
          0 12 8 6 -1.</_>
        <_>
          4 12 4 6 2.</_></rects>
      <tilted>0</tilted></_>
    <_>
      <rects>
        <_>
          0 13 10 11 -1.</_>
        <_>
          5 13 5 11 2.</_></rects>
      <tilted>0</tilted></_>
    <_>
      <rects>
        <_>
          0 15 10 7 -1.</_>
        <_>
          5 15 5 7 2.</_></rects>
      <tilted>0</tilted></_>
    <_>
      <rects>
        <_>
          1 0 2 18 -1.</_>
        <_>
          1 6 2 6 2.</_></rects>
      <tilted>0</tilted></_>
    <_>
      <rects>
        <_>
          1 7 4 6 -1.</_>
        <_>
          1 7 2 3 2.</_>
        <_>
          3 10 2 3 2.</_></rects>
      <tilted>0</tilted></_>
    <_>
      <rects>
        <_>
          1 18 1 6 -1.</_>
        <_>
          1 20 1 2 2.</_></rects>
      <tilted>0</tilted></_>
    <_>
      <rects>
        <_>
          2 0 22 20 -1.</_>
        <_>
          13 0 11 20 2.</_></rects>
      <tilted>0</tilted></_>
    <_>
      <rects>
        <_>
          2 5 2 8 -1.</_>
        <_>
          2 5 1 4 2.</_>
        <_>
          3 9 1 4 2.</_></rects>
      <tilted>0</tilted></_>
    <_>
      <rects>
        <_>
          2 6 2 6 -1.</_>
        <_>
          2 6 1 3 2.</_>
        <_>
          3 9 1 3 2.</_></rects>
      <tilted>0</tilted></_>
    <_>
      <rects>
        <_>
          2 6 4 8 -1.</_>
        <_>
          2 6 2 4 2.</_>
        <_>
          4 10 2 4 2.</_></rects>
      <tilted>0</tilted></_>
    <_>
      <rects>
        <_>
          2 8 4 1 -1.</_>
        <_>
          4 8 2 1 2.</_></rects>
      <tilted>0</tilted></_>
    <_>
      <rects>
        <_>
          2 9 8 1 -1.</_>
        <_>
          6 9 4 1 2.</_></rects>
      <tilted>0</tilted></_>
    <_>
      <rects>
        <_>
          3 7 2 3 -1.</_>
        <_>
          4 7 1 3 2.</_></rects>
      <tilted>0</tilted></_>
    <_>
      <rects>
        <_>
          3 8 2 4 -1.</_>
        <_>
          3 8 1 2 2.</_>
        <_>
          4 10 1 2 2.</_></rects>
      <tilted>0</tilted></_>
    <_>
      <rects>
        <_>
          3 9 2 2 -1.</_>
        <_>
          3 9 1 1 2.</_>
        <_>
          4 10 1 1 2.</_></rects>
      <tilted>0</tilted></_>
    <_>
      <rects>
        <_>
          3 10 2 6 -1.</_>
        <_>
          3 10 1 3 2.</_>
        <_>
          4 13 1 3 2.</_></rects>
      <tilted>0</tilted></_>
    <_>
      <rects>
        <_>
          3 11 6 6 -1.</_>
        <_>
          3 14 6 3 2.</_></rects>
      <tilted>0</tilted></_>
    <_>
      <rects>
        <_>
          4 3 4 7 -1.</_>
        <_>
          6 3 2 7 2.</_></rects>
      <tilted>0</tilted></_>
    <_>
      <rects>
        <_>
          4 5 2 10 -1.</_>
        <_>
          4 10 2 5 2.</_></rects>
      <tilted>0</tilted></_>
    <_>
      <rects>
        <_>
          4 8 2 6 -1.</_>
        <_>
          4 8 1 3 2.</_>
        <_>
          5 11 1 3 2.</_></rects>
      <tilted>0</tilted></_>
    <_>
      <rects>
        <_>
          4 20 15 4 -1.</_>
        <_>
          4 22 15 2 2.</_></rects>
      <tilted>0</tilted></_>
    <_>
      <rects>
        <_>
          4 20 17 4 -1.</_>
        <_>
          4 22 17 2 2.</_></rects>
      <tilted>0</tilted></_>
    <_>
      <rects>
        <_>
          5 3 12 6 -1.</_>
        <_>
          5 3 6 3 2.</_>
        <_>
          11 6 6 3 2.</_></rects>
      <tilted>0</tilted></_>
    <_>
      <rects>
        <_>
          5 7 1 8 -1.</_>
        <_>
          5 11 1 4 2.</_></rects>
      <tilted>0</tilted></_>
    <_>
      <rects>
        <_>
          5 10 10 8 -1.</_>
        <_>
          5 10 5 4 2.</_>
        <_>
          10 14 5 4 2.</_></rects>
      <tilted>0</tilted></_>
    <_>
      <rects>
        <_>
          5 13 6 1 -1.</_>
        <_>
          8 13 3 1 2.</_></rects>
      <tilted>0</tilted></_>
    <_>
      <rects>
        <_>
          6 0 13 4 -1.</_>
        <_>
          6 2 13 2 2.</_></rects>
      <tilted>0</tilted></_>
    <_>
      <rects>
        <_>
          6 1 16 6 -1.</_>
        <_>
          6 1 8 3 2.</_>
        <_>
          14 4 8 3 2.</_></rects>
      <tilted>0</tilted></_>
    <_>
      <rects>
        <_>
          6 3 2 12 -1.</_>
        <_>
          6 9 2 6 2.</_></rects>
      <tilted>0</tilted></_>
    <_>
      <rects>
        <_>
          6 6 12 2 -1.</_>
        <_>
          6 6 6 1 2.</_>
        <_>
          12 7 6 1 2.</_></rects>
      <tilted>0</tilted></_>
    <_>
      <rects>
        <_>
          6 12 18 2 -1.</_>
        <_>
          15 12 9 2 2.</_></rects>
      <tilted>0</tilted></_>
    <_>
      <rects>
        <_>
          7 0 10 4 -1.</_>
        <_>
          7 2 10 2 2.</_></rects>
      <tilted>0</tilted></_>
    <_>
      <rects>
        <_>
          7 1 2 9 -1.</_>
        <_>
          8 1 1 9 2.</_></rects>
      <tilted>0</tilted></_>
    <_>
      <rects>
        <_>
          7 2 2 10 -1.</_>
        <_>
          7 2 1 5 2.</_>
        <_>
          8 7 1 5 2.</_></rects>
      <tilted>0</tilted></_>
    <_>
      <rects>
        <_>
          7 3 2 3 -1.</_>
        <_>
          8 3 1 3 2.</_></rects>
      <tilted>0</tilted></_>
    <_>
      <rects>
        <_>
          7 8 2 4 -1.</_>
        <_>
          7 8 1 2 2.</_>
        <_>
          8 10 1 2 2.</_></rects>
      <tilted>0</tilted></_>
    <_>
      <rects>
        <_>
          7 10 8 10 -1.</_>
        <_>
          7 10 4 5 2.</_>
        <_>
          11 15 4 5 2.</_></rects>
      <tilted>0</tilted></_>
    <_>
      <rects>
        <_>
          7 16 14 6 -1.</_>
        <_>
          7 16 7 3 2.</_>
        <_>
          14 19 7 3 2.</_></rects>
      <tilted>0</tilted></_>
    <_>
      <rects>
        <_>
          8 1 2 5 -1.</_>
        <_>
          9 1 1 5 2.</_></rects>
      <tilted>0</tilted></_>
    <_>
      <rects>
        <_>
          8 1 2 7 -1.</_>
        <_>
          9 1 1 7 2.</_></rects>
      <tilted>0</tilted></_>
    <_>
      <rects>
        <_>
          8 7 3 10 -1.</_>
        <_>
          8 12 3 5 2.</_></rects>
      <tilted>0</tilted></_>
    <_>
      <rects>
        <_>
          8 8 2 6 -1.</_>
        <_>
          8 11 2 3 2.</_></rects>
      <tilted>0</tilted></_>
    <_>
      <rects>
        <_>
          8 10 4 6 -1.</_>
        <_>
          10 10 2 6 2.</_></rects>
      <tilted>0</tilted></_>
    <_>
      <rects>
        <_>
          8 10 7 10 -1.</_>
        <_>
          8 15 7 5 2.</_></rects>
      <tilted>0</tilted></_>
    <_>
      <rects>
        <_>
          8 13 4 7 -1.</_>
        <_>
          10 13 2 7 2.</_></rects>
      <tilted>0</tilted></_>
    <_>
      <rects>
        <_>
          8 13 13 6 -1.</_>
        <_>
          8 16 13 3 2.</_></rects>
      <tilted>0</tilted></_>
    <_>
      <rects>
        <_>
          8 17 10 1 -1.</_>
        <_>
          13 17 5 1 2.</_></rects>
      <tilted>0</tilted></_>
    <_>
      <rects>
        <_>
          9 0 14 24 -1.</_>
        <_>
          16 0 7 24 2.</_></rects>
      <tilted>0</tilted></_>
    <_>
      <rects>
        <_>
          9 1 3 20 -1.</_>
        <_>
          9 11 3 10 2.</_></rects>
      <tilted>0</tilted></_>
    <_>
      <rects>
        <_>
          9 3 2 4 -1.</_>
        <_>
          10 3 1 4 2.</_></rects>
      <tilted>0</tilted></_>
    <_>
      <rects>
        <_>
          9 3 2 10 -1.</_>
        <_>
          9 3 1 5 2.</_>
        <_>
          10 8 1 5 2.</_></rects>
      <tilted>0</tilted></_>
    <_>
      <rects>
        <_>
          9 5 2 10 -1.</_>
        <_>
          9 5 1 5 2.</_>
        <_>
          10 10 1 5 2.</_></rects>
      <tilted>0</tilted></_>
    <_>
      <rects>
        <_>
          9 6 2 1 -1.</_>
        <_>
          10 6 1 1 2.</_></rects>
      <tilted>0</tilted></_>
    <_>
      <rects>
        <_>
          9 8 1 10 -1.</_>
        <_>
          9 13 1 5 2.</_></rects>
      <tilted>0</tilted></_>
    <_>
      <rects>
        <_>
          9 9 2 1 -1.</_>
        <_>
          10 9 1 1 2.</_></rects>
      <tilted>0</tilted></_>
    <_>
      <rects>
        <_>
          9 9 3 4 -1.</_>
        <_>
          9 11 3 2 2.</_></rects>
      <tilted>0</tilted></_>
    <_>
      <rects>
        <_>
          9 9 5 4 -1.</_>
        <_>
          9 11 5 2 2.</_></rects>
      <tilted>0</tilted></_>
    <_>
      <rects>
        <_>
          9 9 6 4 -1.</_>
        <_>
          9 11 6 2 2.</_></rects>
      <tilted>0</tilted></_>
    <_>
      <rects>
        <_>
          9 10 3 2 -1.</_>
        <_>
          9 11 3 1 2.</_></rects>
      <tilted>0</tilted></_>
    <_>
      <rects>
        <_>
          9 10 6 3 -1.</_>
        <_>
          12 10 3 3 2.</_></rects>
      <tilted>0</tilted></_>
    <_>
      <rects>
        <_>
          9 12 4 2 -1.</_>
        <_>
          11 12 2 2 2.</_></rects>
      <tilted>0</tilted></_>
    <_>
      <rects>
        <_>
          9 19 10 4 -1.</_>
        <_>
          9 21 10 2 2.</_></rects>
      <tilted>0</tilted></_>
    <_>
      <rects>
        <_>
          9 20 6 1 -1.</_>
        <_>
          12 20 3 1 2.</_></rects>
      <tilted>0</tilted></_>
    <_>
      <rects>
        <_>
          10 0 14 22 -1.</_>
        <_>
          17 0 7 22 2.</_></rects>
      <tilted>0</tilted></_>
    <_>
      <rects>
        <_>
          10 6 2 3 -1.</_>
        <_>
          11 6 1 3 2.</_></rects>
      <tilted>0</tilted></_>
    <_>
      <rects>
        <_>
          10 7 2 4 -1.</_>
        <_>
          11 7 1 4 2.</_></rects>
      <tilted>0</tilted></_>
    <_>
      <rects>
        <_>
          10 10 3 1 -1.</_>
        <_>
          11 10 1 1 2.</_></rects>
      <tilted>0</tilted></_>
    <_>
      <rects>
        <_>
          10 12 4 3 -1.</_>
        <_>
          12 12 2 3 2.</_></rects>
      <tilted>0</tilted></_>
    <_>
      <rects>
        <_>
          10 12 2 12 -1.</_>
        <_>
          10 18 2 6 2.</_></rects>
      <tilted>0</tilted></_>
    <_>
      <rects>
        <_>
          10 12 10 2 -1.</_>
        <_>
          15 12 5 2 2.</_></rects>
      <tilted>0</tilted></_>
    <_>
      <rects>
        <_>
          10 15 6 3 -1.</_>
        <_>
          13 15 3 3 2.</_></rects>
      <tilted>0</tilted></_>
    <_>
      <rects>
        <_>
          10 16 3 2 -1.</_>
        <_>
          11 16 1 2 2.</_></rects>
      <tilted>0</tilted></_>
    <_>
      <rects>
        <_>
          10 21 9 2 -1.</_>
        <_>
          10 22 9 1 2.</_></rects>
      <tilted>0</tilted></_>
    <_>
      <rects>
        <_>
          11 2 2 7 -1.</_>
        <_>
          12 2 1 7 2.</_></rects>
      <tilted>0</tilted></_>
    <_>
      <rects>
        <_>
          11 4 4 5 -1.</_>
        <_>
          13 4 2 5 2.</_></rects>
      <tilted>0</tilted></_>
    <_>
      <rects>
        <_>
          11 5 4 3 -1.</_>
        <_>
          13 5 2 3 2.</_></rects>
      <tilted>0</tilted></_>
    <_>
      <rects>
        <_>
          11 7 2 2 -1.</_>
        <_>
          12 7 1 2 2.</_></rects>
      <tilted>0</tilted></_>
    <_>
      <rects>
        <_>
          11 7 8 8 -1.</_>
        <_>
          11 7 4 4 2.</_>
        <_>
          15 11 4 4 2.</_></rects>
      <tilted>0</tilted></_>
    <_>
      <rects>
        <_>
          11 18 7 6 -1.</_>
        <_>
          11 21 7 3 2.</_></rects>
      <tilted>0</tilted></_>
    <_>
      <rects>
        <_>
          11 22 8 2 -1.</_>
        <_>
          11 23 8 1 2.</_></rects>
      <tilted>0</tilted></_>
    <_>
      <rects>
        <_>
          12 5 2 4 -1.</_>
        <_>
          13 5 1 4 2.</_></rects>
      <tilted>0</tilted></_>
    <_>
      <rects>
        <_>
          12 7 2 3 -1.</_>
        <_>
          13 7 1 3 2.</_></rects>
      <tilted>0</tilted></_>
    <_>
      <rects>
        <_>
          12 8 2 4 -1.</_>
        <_>
          12 8 1 2 2.</_>
        <_>
          13 10 1 2 2.</_></rects>
      <tilted>0</tilted></_>
    <_>
      <rects>
        <_>
          12 8 2 2 -1.</_>
        <_>
          12 9 2 1 2.</_></rects>
      <tilted>0</tilted></_>
    <_>
      <rects>
        <_>
          12 8 8 8 -1.</_>
        <_>
          16 8 4 8 2.</_></rects>
      <tilted>0</tilted></_>
    <_>
      <rects>
        <_>
          12 10 8 3 -1.</_>
        <_>
          16 10 4 3 2.</_></rects>
      <tilted>0</tilted></_>
    <_>
      <rects>
        <_>
          12 12 2 6 -1.</_>
        <_>
          12 15 2 3 2.</_></rects>
      <tilted>0</tilted></_>
    <_>
      <rects>
        <_>
          12 14 1 8 -1.</_>
        <_>
          12 18 1 4 2.</_></rects>
      <tilted>0</tilted></_>
    <_>
      <rects>
        <_>
          13 5 4 2 -1.</_>
        <_>
          15 5 2 2 2.</_></rects>
      <tilted>0</tilted></_>
    <_>
      <rects>
        <_>
          13 5 6 8 -1.</_>
        <_>
          13 5 3 4 2.</_>
        <_>
          16 9 3 4 2.</_></rects>
      <tilted>0</tilted></_>
    <_>
      <rects>
        <_>
          13 7 4 8 -1.</_>
        <_>
          13 7 2 4 2.</_>
        <_>
          15 11 2 4 2.</_></rects>
      <tilted>0</tilted></_>
    <_>
      <rects>
        <_>
          14 1 4 8 -1.</_>
        <_>
          16 1 2 8 2.</_></rects>
      <tilted>0</tilted></_>
    <_>
      <rects>
        <_>
          14 2 2 8 -1.</_>
        <_>
          14 2 1 4 2.</_>
        <_>
          15 6 1 4 2.</_></rects>
      <tilted>0</tilted></_>
    <_>
      <rects>
        <_>
          14 5 4 8 -1.</_>
        <_>
          14 5 2 4 2.</_>
        <_>
          16 9 2 4 2.</_></rects>
      <tilted>0</tilted></_>
    <_>
      <rects>
        <_>
          14 6 2 3 -1.</_>
        <_>
          15 6 1 3 2.</_></rects>
      <tilted>0</tilted></_>
    <_>
      <rects>
        <_>
          14 9 4 15 -1.</_>
        <_>
          14 14 4 5 2.</_></rects>
      <tilted>0</tilted></_>
    <_>
      <rects>
        <_>
          15 1 4 6 -1.</_>
        <_>
          17 1 2 6 2.</_></rects>
      <tilted>0</tilted></_>
    <_>
      <rects>
        <_>
          15 2 2 6 -1.</_>
        <_>
          15 2 1 3 2.</_>
        <_>
          16 5 1 3 2.</_></rects>
      <tilted>0</tilted></_>
    <_>
      <rects>
        <_>
          15 3 2 12 -1.</_>
        <_>
          15 7 2 4 2.</_></rects>
      <tilted>0</tilted></_>
    <_>
      <rects>
        <_>
          15 7 8 8 -1.</_>
        <_>
          15 7 4 4 2.</_>
        <_>
          19 11 4 4 2.</_></rects>
      <tilted>0</tilted></_>
    <_>
      <rects>
        <_>
          16 0 2 15 -1.</_>
        <_>
          16 5 2 5 2.</_></rects>
      <tilted>0</tilted></_>
    <_>
      <rects>
        <_>
          16 0 8 1 -1.</_>
        <_>
          20 0 4 1 2.</_></rects>
      <tilted>0</tilted></_>
    <_>
      <rects>
        <_>
          16 1 1 15 -1.</_>
        <_>
          16 6 1 5 2.</_></rects>
      <tilted>0</tilted></_>
    <_>
      <rects>
        <_>
          16 6 2 1 -1.</_>
        <_>
          17 6 1 1 2.</_></rects>
      <tilted>0</tilted></_>
    <_>
      <rects>
        <_>
          16 6 2 8 -1.</_>
        <_>
          16 6 1 4 2.</_>
        <_>
          17 10 1 4 2.</_></rects>
      <tilted>0</tilted></_>
    <_>
      <rects>
        <_>
          16 12 1 8 -1.</_>
        <_>
          16 16 1 4 2.</_></rects>
      <tilted>0</tilted></_>
    <_>
      <rects>
        <_>
          16 13 6 6 -1.</_>
        <_>
          16 13 3 3 2.</_>
        <_>
          19 16 3 3 2.</_></rects>
      <tilted>0</tilted></_>
    <_>
      <rects>
        <_>
          16 14 4 9 -1.</_>
        <_>
          16 17 4 3 2.</_></rects>
      <tilted>0</tilted></_>
    <_>
      <rects>
        <_>
          16 15 1 9 -1.</_>
        <_>
          16 18 1 3 2.</_></rects>
      <tilted>0</tilted></_>
    <_>
      <rects>
        <_>
          16 16 4 4 -1.</_>
        <_>
          16 16 2 2 2.</_>
        <_>
          18 18 2 2 2.</_></rects>
      <tilted>0</tilted></_>
    <_>
      <rects>
        <_>
          17 12 1 12 -1.</_>
        <_>
          17 16 1 4 2.</_></rects>
      <tilted>0</tilted></_>
    <_>
      <rects>
        <_>
          17 13 6 2 -1.</_>
        <_>
          17 13 3 1 2.</_>
        <_>
          20 14 3 1 2.</_></rects>
      <tilted>0</tilted></_>
    <_>
      <rects>
        <_>
          17 14 3 9 -1.</_>
        <_>
          17 17 3 3 2.</_></rects>
      <tilted>0</tilted></_>
    <_>
      <rects>
        <_>
          17 16 2 8 -1.</_>
        <_>
          17 20 2 4 2.</_></rects>
      <tilted>0</tilted></_>
    <_>
      <rects>
        <_>
          18 12 4 6 -1.</_>
        <_>
          18 12 2 3 2.</_>
        <_>
          20 15 2 3 2.</_></rects>
      <tilted>0</tilted></_>
    <_>
      <rects>
        <_>
          18 14 2 4 -1.</_>
        <_>
          18 14 1 2 2.</_>
        <_>
          19 16 1 2 2.</_></rects>
      <tilted>0</tilted></_>
    <_>
      <rects>
        <_>
          19 14 1 2 -1.</_>
        <_>
          19 15 1 1 2.</_></rects>
      <tilted>0</tilted></_>
    <_>
      <rects>
        <_>
          20 9 2 15 -1.</_>
        <_>
          20 14 2 5 2.</_></rects>
      <tilted>0</tilted></_>
    <_>
      <rects>
        <_>
          20 11 1 12 -1.</_>
        <_>
          20 15 1 4 2.</_></rects>
      <tilted>0</tilted></_></features></cascade>
</opencv_storage>
