<?xml version="1.0"?>
<opencv_storage>
<cascade>
  <stageType>BOOST</stageType>
  <featureType>HAAR</featureType>
  <height>24</height>
  <width>24</width>
  <stageParams>
    <boostType>GAB</boostType>
    <minHitRate>9.9500000476837158e-01</minHitRate>
    <maxFalseAlarm>5.0000000000000000e-01</maxFalseAlarm>
    <weightTrimRate>9.4999999999999996e-01</weightTrimRate>
    <maxDepth>1</maxDepth>
    <maxWeakCount>100</maxWeakCount></stageParams>
  <featureParams>
    <maxCatCount>0</maxCatCount>
    <featSize>1</featSize>
    <mode>BASIC</mode></featureParams>
  <stageNum>10</stageNum>
  <stages>
    <!-- stage 0 -->
    <_>
      <maxWeakCount>3</maxWeakCount>
      <stageThreshold>-1.3020102977752686e+00</stageThreshold>
      <weakClassifiers>
        <_>
          <internalNodes>
            0 -1 32 -1.4420257881283760e-02</internalNodes>
          <leafValues>
            5.2727270126342773e-01 -9.2007994651794434e-01</leafValues></_>
        <_>
          <internalNodes>
            0 -1 42 -4.4282004237174988e-02</internalNodes>
          <leafValues>
            6.5757614374160767e-01 -7.5456511974334717e-01</leafValues></_>
        <_>
          <internalNodes>
            0 -1 35 1.1645104968920350e-03</internalNodes>
          <leafValues>
            3.7263467907905579e-01 -9.6531057357788086e-01</leafValues></_></weakClassifiers></_>
    <!-- stage 1 -->
    <_>
      <maxWeakCount>5</maxWeakCount>
      <stageThreshold>-1.8608398437500000e+00</stageThreshold>
      <weakClassifiers>
        <_>
          <internalNodes>
            0 -1 39 -3.9429508149623871e-02</internalNodes>
          <leafValues>
            6.2637364864349365e-01 -8.2883721590042114e-01</leafValues></_>
        <_>
          <internalNodes>
            0 -1 11 -1.9267819821834564e-02</internalNodes>
          <leafValues>
            4.1887113451957703e-01 -7.0530241727828979e-01</leafValues></_>
        <_>
          <internalNodes>
            0 -1 16 -3.6840098910033703e-03</internalNodes>
          <leafValues>
            6.7929708957672119e-01 -4.5866137742996216e-01</leafValues></_>
        <_>
          <internalNodes>
            0 -1 29 1.3330432120710611e-03</internalNodes>
          <leafValues>
            -6.3161480426788330e-01 5.3828907012939453e-01</leafValues></_>
        <_>
          <internalNodes>
            0 -1 46 -2.8034863062202930e-03</internalNodes>
          <leafValues>
            7.7306848764419556e-01 -3.6059761047363281e-01</leafValues></_></weakClassifiers></_>
    <!-- stage 2 -->
    <_>
      <maxWeakCount>3</maxWeakCount>
      <stageThreshold>-1.5155837535858154e+00</stageThreshold>
      <weakClassifiers>
        <_>
          <internalNodes>
            0 -1 36 -3.2837443053722382e-02</internalNodes>
          <leafValues>
            4.5762711763381958e-01 -8.4732824563980103e-01</leafValues></_>
        <_>
          <internalNodes>
            0 -1 47 -2.7504506707191467e-01</internalNodes>
          <leafValues>
            -9.3895387649536133e-01 1.5671549737453461e-01</leafValues></_>
        <_>
          <internalNodes>
            0 -1 13 8.9500885223969817e-04</internalNodes>
          <leafValues>
            -8.2497102022171021e-01 2.9824545979499817e-01</leafValues></_></weakClassifiers></_>
    <!-- stage 3 -->
    <_>
      <maxWeakCount>6</maxWeakCount>
      <stageThreshold>-1.4894572496414185e+00</stageThreshold>
      <weakClassifiers>
        <_>
          <internalNodes>
            0 -1 53 -3.1476924195885658e-03</internalNodes>
          <leafValues>
            -7.9819822311401367e-01 9.2857140302658081e-01</leafValues></_>
        <_>
          <internalNodes>
            0 -1 24 -6.3342079520225525e-03</internalNodes>
          <leafValues>
            7.2646510601043701e-01 -4.8253726959228516e-01</leafValues></_>
        <_>
          <internalNodes>
            0 -1 23 8.1958584487438202e-03</internalNodes>
          <leafValues>
            -6.2942224740982056e-01 4.3771877884864807e-01</leafValues></_>
        <_>
          <internalNodes>
            0 -1 40 -1.7047584056854248e-02</internalNodes>
          <leafValues>
            4.4868290424346924e-01 -5.8213007450103760e-01</leafValues></_>
        <_>
          <internalNodes>
            0 -1 33 6.5868988167494535e-04</internalNodes>
          <leafValues>
            2.7323311567306519e-01 -9.1817194223403931e-01</leafValues></_>
        <_>
          <internalNodes>
            0 -1 1 6.2460370361804962e-02</internalNodes>
          <leafValues>
            -3.0121552944183350e-01 8.0674982070922852e-01</leafValues></_></weakClassifiers></_>
    <!-- stage 4 -->
    <_>
      <maxWeakCount>7</maxWeakCount>
      <stageThreshold>-1.4953581094741821e+00</stageThreshold>
      <weakClassifiers>
        <_>
          <internalNodes>
            0 -1 14 -6.9126218557357788e-02</internalNodes>
          <leafValues>
            5.3191488981246948e-01 -8.2462686300277710e-01</leafValues></_>
        <_>
          <internalNodes>
            0 -1 17 2.6044610422104597e-03</internalNodes>
          <leafValues>
            -5.6368899345397949e-01 3.7591841816902161e-01</leafValues></_>
        <_>
          <internalNodes>
            0 -1 2 -4.1400946676731110e-02</internalNodes>
          <leafValues>
            -1. 1.6400204598903656e-01</leafValues></_>
        <_>
          <internalNodes>
            0 -1 37 -5.4333899170160294e-03</internalNodes>
          <leafValues>
            5.3397172689437866e-01 -4.6082919836044312e-01</leafValues></_>
        <_>
          <internalNodes>
            0 -1 19 2.1349659073166549e-04</internalNodes>
          <leafValues>
            -7.4026751518249512e-01 2.6495322585105896e-01</leafValues></_>
        <_>
          <internalNodes>
            0 -1 41 2.4445508606731892e-03</internalNodes>
          <leafValues>
            -3.3261299133300781e-01 6.4983302354812622e-01</leafValues></_>
        <_>
          <internalNodes>
            0 -1 20 2.9026060365140438e-03</internalNodes>
          <leafValues>
            2.6786452531814575e-01 -9.0835464000701904e-01</leafValues></_></weakClassifiers></_>
    <!-- stage 5 -->
    <_>
      <maxWeakCount>5</maxWeakCount>
      <stageThreshold>-1.9768589735031128e+00</stageThreshold>
      <weakClassifiers>
        <_>
          <internalNodes>
            0 -1 4 1.6496093943715096e-02</internalNodes>
          <leafValues>
            -8.3380019664764404e-01 6.2105262279510498e-01</leafValues></_>
        <_>
          <internalNodes>
            0 -1 3 -2.5457304436713457e-03</internalNodes>
          <leafValues>
            6.8573576211929321e-01 -5.6316190958023071e-01</leafValues></_>
        <_>
          <internalNodes>
            0 -1 12 -1.2284917756915092e-02</internalNodes>
          <leafValues>
            3.7842163443565369e-01 -7.2417080402374268e-01</leafValues></_>
        <_>
          <internalNodes>
            0 -1 30 5.5839791893959045e-03</internalNodes>
          <leafValues>
            -5.0396716594696045e-01 4.7391283512115479e-01</leafValues></_>
        <_>
          <internalNodes>
            0 -1 15 1.7075742362067103e-03</internalNodes>
          <leafValues>
            -4.5435130596160889e-01 5.2364307641983032e-01</leafValues></_></weakClassifiers></_>
    <!-- stage 6 -->
    <_>
      <maxWeakCount>6</maxWeakCount>
      <stageThreshold>-1.6828529834747314e+00</stageThreshold>
      <weakClassifiers>
        <_>
          <internalNodes>
            0 -1 44 -3.3085271716117859e-02</internalNodes>
          <leafValues>
            6.6265058517456055e-01 -8.2086795568466187e-01</leafValues></_>
        <_>
          <internalNodes>
            0 -1 43 -4.9833799712359905e-03</internalNodes>
          <leafValues>
            4.6682152152061462e-01 -5.5511415004730225e-01</leafValues></_>
        <_>
          <internalNodes>
            0 -1 38 -1.9759016577154398e-03</internalNodes>
          <leafValues>
            6.9637274742126465e-01 -3.1963425874710083e-01</leafValues></_>
        <_>
          <internalNodes>
            0 -1 26 1.9851550459861755e-03</internalNodes>
          <leafValues>
            -3.1595143675804138e-01 5.8001285791397095e-01</leafValues></_>
        <_>
          <internalNodes>
            0 -1 9 1.6694510355591774e-02</internalNodes>
          <leafValues>
            -2.6344618201255798e-01 6.5088164806365967e-01</leafValues></_>
        <_>
          <internalNodes>
            0 -1 5 1.6669735778123140e-03</internalNodes>
          <leafValues>
            -3.2216680049896240e-01 6.1145818233489990e-01</leafValues></_></weakClassifiers></_>
    <!-- stage 7 -->
    <_>
      <maxWeakCount>5</maxWeakCount>
      <stageThreshold>-1.3479400873184204e+00</stageThreshold>
      <weakClassifiers>
        <_>
          <internalNodes>
            0 -1 50 -1.8419534899294376e-03</internalNodes>
          <leafValues>
            -8.0692166090011597e-01 7.6470589637756348e-01</leafValues></_>
        <_>
          <internalNodes>
            0 -1 25 7.3094977997243404e-03</internalNodes>
          <leafValues>
            -4.8783141374588013e-01 7.4475806951522827e-01</leafValues></_>
        <_>
          <internalNodes>
            0 -1 21 -2.0769590046256781e-03</internalNodes>
          <leafValues>
            -5.8671140670776367e-01 3.3400365710258484e-01</leafValues></_>
        <_>
          <internalNodes>
            0 -1 0 1.1379372328519821e-01</internalNodes>
          <leafValues>
            1.9218894839286804e-01 -9.0357434749603271e-01</leafValues></_>
        <_>
          <internalNodes>
            0 -1 7 1.5772180631756783e-03</internalNodes>
          <leafValues>
            -3.6031562089920044e-01 5.1638376712799072e-01</leafValues></_></weakClassifiers></_>
    <!-- stage 8 -->
    <_>
      <maxWeakCount>8</maxWeakCount>
      <stageThreshold>-1.6613774299621582e+00</stageThreshold>
      <weakClassifiers>
        <_>
          <internalNodes>
            0 -1 54 2.3964201682247221e-04</internalNodes>
          <leafValues>
            -7.8796046972274780e-01 8.1132078170776367e-01</leafValues></_>
        <_>
          <internalNodes>
            0 -1 51 -2.0878566429018974e-03</internalNodes>
          <leafValues>
            5.3281331062316895e-01 -5.3159445524215698e-01</leafValues></_>
        <_>
          <internalNodes>
            0 -1 28 2.8662627300946042e-05</internalNodes>
          <leafValues>
            -6.9882273674011230e-01 3.2533439993858337e-01</leafValues></_>
        <_>
          <internalNodes>
            0 -1 48 9.9786277860403061e-04</internalNodes>
          <leafValues>
            -2.8536039590835571e-01 7.3400515317916870e-01</leafValues></_>
        <_>
          <internalNodes>
            0 -1 49 3.5825246013700962e-03</internalNodes>
          <leafValues>
            -2.2551813721656799e-01 7.1441692113876343e-01</leafValues></_>
        <_>
          <internalNodes>
            0 -1 27 -3.7915000575594604e-04</internalNodes>
          <leafValues>
            5.2921479940414429e-01 -3.3509328961372375e-01</leafValues></_>
        <_>
          <internalNodes>
            0 -1 31 -2.3950510658323765e-03</internalNodes>
          <leafValues>
            -8.2419496774673462e-01 3.0118250846862793e-01</leafValues></_>
        <_>
          <internalNodes>
            0 -1 34 -5.4967837058939040e-05</internalNodes>
          <leafValues>
            2.5631967186927795e-01 -6.9749164581298828e-01</leafValues></_></weakClassifiers></_>
    <!-- stage 9 -->
    <_>
      <maxWeakCount>7</maxWeakCount>
      <stageThreshold>-1.7388169765472412e+00</stageThreshold>
      <weakClassifiers>
        <_>
          <internalNodes>
            0 -1 45 -2.4294622242450714e-02</internalNodes>
          <leafValues>
            5.3246754407882690e-01 -8.0348944664001465e-01</leafValues></_>
        <_>
          <internalNodes>
            0 -1 22 -2.8051710128784180e-01</internalNodes>
          <leafValues>
            2.7299329638481140e-01 -5.3616976737976074e-01</leafValues></_>
        <_>
          <internalNodes>
            0 -1 10 -3.2148538157343864e-03</internalNodes>
          <leafValues>
            6.9333845376968384e-01 -3.0467846989631653e-01</leafValues></_>
        <_>
          <internalNodes>
            0 -1 52 1.8127968360204250e-04</internalNodes>
          <leafValues>
            -3.3214178681373596e-01 4.5587036013603210e-01</leafValues></_>
        <_>
          <internalNodes>
            0 -1 18 2.1082781255245209e-02</internalNodes>
          <leafValues>
            1.9175361096858978e-01 -8.7643522024154663e-01</leafValues></_>
        <_>
          <internalNodes>
            0 -1 6 -3.0490388162434101e-03</internalNodes>
          <leafValues>
            7.0655059814453125e-01 -2.4701085686683655e-01</leafValues></_>
        <_>
          <internalNodes>
            0 -1 8 -7.4497684836387634e-03</internalNodes>
          <leafValues>
            6.3077020645141602e-01 -3.8046500086784363e-01</leafValues></_></weakClassifiers></_></stages>
  <features>
    <_>
      <rects>
        <_>
          0 6 18 14 -1.</_>
        <_>
          0 13 18 7 2.</_></rects>
      <tilted>0</tilted></_>
    <_>
      <rects>
        <_>
          0 12 8 6 -1.</_>
        <_>
          4 12 4 6 2.</_></rects>
      <tilted>0</tilted></_>
    <_>
      <rects>
        <_>
          1 18 1 6 -1.</_>
        <_>
          1 20 1 2 2.</_></rects>
      <tilted>0</tilted></_>
    <_>
      <rects>
        <_>
          2 6 2 6 -1.</_>
        <_>
          2 6 1 3 2.</_>
        <_>
          3 9 1 3 2.</_></rects>
      <tilted>0</tilted></_>
    <_>
      <rects>
        <_>
          2 6 4 8 -1.</_>
        <_>
          2 6 2 4 2.</_>
        <_>
          4 10 2 4 2.</_></rects>
      <tilted>0</tilted></_>
    <_>
      <rects>
        <_>
          2 8 4 1 -1.</_>
        <_>
          4 8 2 1 2.</_></rects>
      <tilted>0</tilted></_>
    <_>
      <rects>
        <_>
          3 7 2 3 -1.</_>
        <_>
          4 7 1 3 2.</_></rects>
      <tilted>0</tilted></_>
    <_>
      <rects>
        <_>
          3 10 2 6 -1.</_>
        <_>
          3 10 1 3 2.</_>
        <_>
          4 13 1 3 2.</_></rects>
      <tilted>0</tilted></_>
    <_>
      <rects>
        <_>
          4 3 4 7 -1.</_>
        <_>
          6 3 2 7 2.</_></rects>
      <tilted>0</tilted></_>
    <_>
      <rects>
        <_>
          4 5 2 10 -1.</_>
        <_>
          4 10 2 5 2.</_></rects>
      <tilted>0</tilted></_>
    <_>
      <rects>
        <_>
          4 8 2 6 -1.</_>
        <_>
          4 8 1 3 2.</_>
        <_>
          5 11 1 3 2.</_></rects>
      <tilted>0</tilted></_>
    <_>
      <rects>
        <_>
          4 20 15 4 -1.</_>
        <_>
          4 22 15 2 2.</_></rects>
      <tilted>0</tilted></_>
    <_>
      <rects>
        <_>
          4 20 17 4 -1.</_>
        <_>
          4 22 17 2 2.</_></rects>
      <tilted>0</tilted></_>
    <_>
      <rects>
        <_>
          6 3 2 12 -1.</_>
        <_>
          6 9 2 6 2.</_></rects>
      <tilted>0</tilted></_>
    <_>
      <rects>
        <_>
          6 12 18 2 -1.</_>
        <_>
          15 12 9 2 2.</_></rects>
      <tilted>0</tilted></_>
    <_>
      <rects>
        <_>
          7 1 2 9 -1.</_>
        <_>
          8 1 1 9 2.</_></rects>
      <tilted>0</tilted></_>
    <_>
      <rects>
        <_>
          7 2 2 10 -1.</_>
        <_>
          7 2 1 5 2.</_>
        <_>
          8 7 1 5 2.</_></rects>
      <tilted>0</tilted></_>
    <_>
      <rects>
        <_>
          7 3 2 3 -1.</_>
        <_>
          8 3 1 3 2.</_></rects>
      <tilted>0</tilted></_>
    <_>
      <rects>
        <_>
          8 7 3 10 -1.</_>
        <_>
          8 12 3 5 2.</_></rects>
      <tilted>0</tilted></_>
    <_>
      <rects>
        <_>
          8 8 2 6 -1.</_>
        <_>
          8 11 2 3 2.</_></rects>
      <tilted>0</tilted></_>
    <_>
      <rects>
        <_>
          8 10 4 6 -1.</_>
        <_>
          10 10 2 6 2.</_></rects>
      <tilted>0</tilted></_>
    <_>
      <rects>
        <_>
          8 13 4 7 -1.</_>
        <_>
          10 13 2 7 2.</_></rects>
      <tilted>0</tilted></_>
    <_>
      <rects>
        <_>
          9 0 14 24 -1.</_>
        <_>
          16 0 7 24 2.</_></rects>
      <tilted>0</tilted></_>
    <_>
      <rects>
        <_>
          9 1 3 20 -1.</_>
        <_>
          9 11 3 10 2.</_></rects>
      <tilted>0</tilted></_>
    <_>
      <rects>
        <_>
          9 3 2 4 -1.</_>
        <_>
          10 3 1 4 2.</_></rects>
      <tilted>0</tilted></_>
    <_>
      <rects>
        <_>
          9 3 2 10 -1.</_>
        <_>
          9 3 1 5 2.</_>
        <_>
          10 8 1 5 2.</_></rects>
      <tilted>0</tilted></_>
    <_>
      <rects>
        <_>
          9 5 2 10 -1.</_>
        <_>
          9 5 1 5 2.</_>
        <_>
          10 10 1 5 2.</_></rects>
      <tilted>0</tilted></_>
    <_>
      <rects>
        <_>
          9 6 2 1 -1.</_>
        <_>
          10 6 1 1 2.</_></rects>
      <tilted>0</tilted></_>
    <_>
      <rects>
        <_>
          9 8 1 10 -1.</_>
        <_>
          9 13 1 5 2.</_></rects>
      <tilted>0</tilted></_>
    <_>
      <rects>
        <_>
          9 9 3 4 -1.</_>
        <_>
          9 11 3 2 2.</_></rects>
      <tilted>0</tilted></_>
    <_>
      <rects>
        <_>
          9 9 6 4 -1.</_>
        <_>
          9 11 6 2 2.</_></rects>
      <tilted>0</tilted></_>
    <_>
      <rects>
        <_>
          9 12 4 2 -1.</_>
        <_>
          11 12 2 2 2.</_></rects>
      <tilted>0</tilted></_>
    <_>
      <rects>
        <_>
          9 19 10 4 -1.</_>
        <_>
          9 21 10 2 2.</_></rects>
      <tilted>0</tilted></_>
    <_>
      <rects>
        <_>
          9 20 6 1 -1.</_>
        <_>
          12 20 3 1 2.</_></rects>
      <tilted>0</tilted></_>
    <_>
      <rects>
        <_>
          10 12 4 3 -1.</_>
        <_>
          12 12 2 3 2.</_></rects>
      <tilted>0</tilted></_>
    <_>
      <rects>
        <_>
          10 12 2 12 -1.</_>
        <_>
          10 18 2 6 2.</_></rects>
      <tilted>0</tilted></_>
    <_>
      <rects>
        <_>
          10 12 10 2 -1.</_>
        <_>
          15 12 5 2 2.</_></rects>
      <tilted>0</tilted></_>
    <_>
      <rects>
        <_>
          10 21 9 2 -1.</_>
        <_>
          10 22 9 1 2.</_></rects>
      <tilted>0</tilted></_>
    <_>
      <rects>
        <_>
          11 7 2 2 -1.</_>
        <_>
          12 7 1 2 2.</_></rects>
      <tilted>0</tilted></_>
    <_>
      <rects>
        <_>
          11 7 8 8 -1.</_>
        <_>
          11 7 4 4 2.</_>
        <_>
          15 11 4 4 2.</_></rects>
      <tilted>0</tilted></_>
    <_>
      <rects>
        <_>
          11 18 7 6 -1.</_>
        <_>
          11 21 7 3 2.</_></rects>
      <tilted>0</tilted></_>
    <_>
      <rects>
        <_>
          12 7 2 3 -1.</_>
        <_>
          13 7 1 3 2.</_></rects>
      <tilted>0</tilted></_>
    <_>
      <rects>
        <_>
          12 8 8 8 -1.</_>
        <_>
          16 8 4 8 2.</_></rects>
      <tilted>0</tilted></_>
    <_>
      <rects>
        <_>
          13 5 4 2 -1.</_>
        <_>
          15 5 2 2 2.</_></rects>
      <tilted>0</tilted></_>
    <_>
      <rects>
        <_>
          13 5 6 8 -1.</_>
        <_>
          13 5 3 4 2.</_>
        <_>
          16 9 3 4 2.</_></rects>
      <tilted>0</tilted></_>
    <_>
      <rects>
        <_>
          13 7 4 8 -1.</_>
        <_>
          13 7 2 4 2.</_>
        <_>
          15 11 2 4 2.</_></rects>
      <tilted>0</tilted></_>
    <_>
      <rects>
        <_>
          14 6 2 3 -1.</_>
        <_>
          15 6 1 3 2.</_></rects>
      <tilted>0</tilted></_>
    <_>
      <rects>
        <_>
          14 9 4 15 -1.</_>
        <_>
          14 14 4 5 2.</_></rects>
      <tilted>0</tilted></_>
    <_>
      <rects>
        <_>
          16 6 2 1 -1.</_>
        <_>
          17 6 1 1 2.</_></rects>
      <tilted>0</tilted></_>
    <_>
      <rects>
        <_>
          16 6 2 8 -1.</_>
        <_>
          16 6 1 4 2.</_>
        <_>
          17 10 1 4 2.</_></rects>
      <tilted>0</tilted></_>
    <_>
      <rects>
        <_>
          17 12 1 12 -1.</_>
        <_>
          17 16 1 4 2.</_></rects>
      <tilted>0</tilted></_>
    <_>
      <rects>
        <_>
          18 14 2 4 -1.</_>
        <_>
          18 14 1 2 2.</_>
        <_>
          19 16 1 2 2.</_></rects>
      <tilted>0</tilted></_>
    <_>
      <rects>
        <_>
          19 14 1 2 -1.</_>
        <_>
          19 15 1 1 2.</_></rects>
      <tilted>0</tilted></_>
    <_>
      <rects>
        <_>
          20 9 2 15 -1.</_>
        <_>
          20 14 2 5 2.</_></rects>
      <tilted>0</tilted></_>
    <_>
      <rects>
        <_>
          20 11 1 12 -1.</_>
        <_>
          20 15 1 4 2.</_></rects>
      <tilted>0</tilted></_></features></cascade>
</opencv_storage>
